<?xml version="1.0"?>
<opencv_storage>
<stage4>
  <maxWeakCount>5</maxWeakCount>
  <stageThreshold>-4.0921151638031006e-01</stageThreshold>
  <weakClassifiers>
    <_>
      <internalNodes>
        0 -1 110302 4.9272825708612800e-04</internalNodes>
      <leafValues>
        6.1224490404129028e-01 -7.2815531492233276e-01</leafValues></_>
    <_>
      <internalNodes>
        0 -1 89412 -7.9578757286071777e-02</internalNodes>
      <leafValues>
        8.5864496231079102e-01 -3.5990643501281738e-01</leafValues></_>
    <_>
      <internalNodes>
        0 -1 152353 4.3471600860357285e-02</internalNodes>
      <leafValues>
        -3.8504382967948914e-01 6.4159476757049561e-01</leafValues></_>
    <_>
      <internalNodes>
        0 -1 103564 -1.5280398074537516e-03</internalNodes>
      <leafValues>
        -7.0282149314880371e-01 3.8643392920494080e-01</leafValues></_>
    <_>
      <internalNodes>
        0 -1 146051 -2.9839981347322464e-02</internalNodes>
      <leafValues>
        7.0776182413101196e-01 -3.4917846322059631e-01</leafValues></_></weakClassifiers></stage4>
</opencv_storage>
