<?xml version="1.0"?>
<opencv_storage>
<stage11>
  <maxWeakCount>7</maxWeakCount>
  <stageThreshold>-6.5050548315048218e-01</stageThreshold>
  <weakClassifiers>
    <_>
      <internalNodes>
        0 -1 107613 5.9314444661140442e-03</internalNodes>
      <leafValues>
        5.1773047447204590e-01 -7.5000000000000000e-01</leafValues></_>
    <_>
      <internalNodes>
        0 -1 25250 -1.7887410521507263e-01</internalNodes>
      <leafValues>
        8.2118421792984009e-01 -2.3875215649604797e-01</leafValues></_>
    <_>
      <internalNodes>
        0 -1 124872 -1.3336264528334141e-03</internalNodes>
      <leafValues>
        3.7464600801467896e-01 -5.6803047657012939e-01</leafValues></_>
    <_>
      <internalNodes>
        0 -1 1879 -2.8942372649908066e-02</internalNodes>
      <leafValues>
        -8.8987088203430176e-01 2.0259916782379150e-01</leafValues></_>
    <_>
      <internalNodes>
        0 -1 102442 1.6422657063230872e-04</internalNodes>
      <leafValues>
        2.5848737359046936e-01 -6.6476303339004517e-01</leafValues></_>
    <_>
      <internalNodes>
        0 -1 121724 -6.8520236527547240e-04</internalNodes>
      <leafValues>
        -8.4633547067642212e-01 1.9296993315219879e-01</leafValues></_>
    <_>
      <internalNodes>
        0 -1 109831 -4.2670255061239004e-04</internalNodes>
      <leafValues>
        -6.7802101373672485e-01 2.3279459774494171e-01</leafValues></_></weakClassifiers></stage11>
</opencv_storage>
