<?xml version="1.0"?>
<opencv_storage>
<stage3>
  <maxWeakCount>5</maxWeakCount>
  <stageThreshold>-6.1980259418487549e-01</stageThreshold>
  <weakClassifiers>
    <_>
      <internalNodes>
        0 -1 12847 -5.1651168614625931e-03</internalNodes>
      <leafValues>
        7.7777779102325439e-01 -5.0877195596694946e-01</leafValues></_>
    <_>
      <internalNodes>
        0 -1 15637 -4.8206266015768051e-02</internalNodes>
      <leafValues>
        7.8602921962738037e-01 -3.3794376254081726e-01</leafValues></_>
    <_>
      <internalNodes>
        0 -1 4067 1.1100077070295811e-02</internalNodes>
      <leafValues>
        -7.6126092672348022e-01 4.6504443883895874e-01</leafValues></_>
    <_>
      <internalNodes>
        0 -1 55203 4.9109489191323519e-04</internalNodes>
      <leafValues>
        -6.1717110872268677e-01 5.2742993831634521e-01</leafValues></_>
    <_>
      <internalNodes>
        0 -1 35807 5.0092795863747597e-03</internalNodes>
      <leafValues>
        -7.4493318796157837e-01 3.7913143634796143e-01</leafValues></_></weakClassifiers></stage3>
</opencv_storage>
