<?xml version="1.0"?>
<opencv_storage>
<stage10>
  <maxWeakCount>6</maxWeakCount>
  <stageThreshold>-4.6100366115570068e-01</stageThreshold>
  <weakClassifiers>
    <_>
      <internalNodes>
        0 -1 153878 2.1586375311017036e-02</internalNodes>
      <leafValues>
        -4.0579709410667419e-01 6.1904764175415039e-01</leafValues></_>
    <_>
      <internalNodes>
        0 -1 139476 4.1291839443147182e-04</internalNodes>
      <leafValues>
        3.7138125300407410e-01 -6.7356932163238525e-01</leafValues></_>
    <_>
      <internalNodes>
        0 -1 133749 -3.3809558954089880e-03</internalNodes>
      <leafValues>
        -3.1311392784118652e-01 7.3518472909927368e-01</leafValues></_>
    <_>
      <internalNodes>
        0 -1 107617 -7.6348832808434963e-03</internalNodes>
      <leafValues>
        -8.5033696889877319e-01 3.0989500880241394e-01</leafValues></_>
    <_>
      <internalNodes>
        0 -1 29614 -3.3710575662553310e-03</internalNodes>
      <leafValues>
        4.2965978384017944e-01 -5.6558465957641602e-01</leafValues></_>
    <_>
      <internalNodes>
        0 -1 102169 -3.8080785889178514e-03</internalNodes>
      <leafValues>
        2.6909354329109192e-01 -8.5302865505218506e-01</leafValues></_></weakClassifiers></stage10>
</opencv_storage>
