<?xml version="1.0"?>
<opencv_storage>
<stage13>
  <maxWeakCount>10</maxWeakCount>
  <stageThreshold>-4.7576573491096497e-01</stageThreshold>
  <weakClassifiers>
    <_>
      <internalNodes>
        0 -1 110399 -1.1864861007779837e-03</internalNodes>
      <leafValues>
        -1. 4.6341463923454285e-01</leafValues></_>
    <_>
      <internalNodes>
        0 -1 87846 2.1016130223870277e-02</internalNodes>
      <leafValues>
        -3.9377442002296448e-01 5.0427788496017456e-01</leafValues></_>
    <_>
      <internalNodes>
        0 -1 157696 2.7933792443946004e-04</internalNodes>
      <leafValues>
        -4.6253257989883423e-01 4.3833401799201965e-01</leafValues></_>
    <_>
      <internalNodes>
        0 -1 11125 -1.6015391796827316e-02</internalNodes>
      <leafValues>
        3.7335109710693359e-01 -5.0581264495849609e-01</leafValues></_>
    <_>
      <internalNodes>
        0 -1 1264 -9.6016228781081736e-05</internalNodes>
      <leafValues>
        2.8484454751014709e-01 -5.3110802173614502e-01</leafValues></_>
    <_>
      <internalNodes>
        0 -1 133946 -2.7032551588490605e-04</internalNodes>
      <leafValues>
        3.6202776432037354e-01 -4.6008214354515076e-01</leafValues></_>
    <_>
      <internalNodes>
        0 -1 118261 -2.0203379914164543e-02</internalNodes>
      <leafValues>
        2.4337382614612579e-01 -6.3440191745758057e-01</leafValues></_>
    <_>
      <internalNodes>
        0 -1 70907 1.2035015970468521e-02</internalNodes>
      <leafValues>
        2.1309921145439148e-01 -6.3477861881256104e-01</leafValues></_>
    <_>
      <internalNodes>
        0 -1 137286 -4.2343642562627792e-03</internalNodes>
      <leafValues>
        4.5524483919143677e-01 -3.4028366208076477e-01</leafValues></_>
    <_>
      <internalNodes>
        0 -1 41762 9.8138451576232910e-03</internalNodes>
      <leafValues>
        -3.3663186430931091e-01 4.8253023624420166e-01</leafValues></_></weakClassifiers></stage13>
</opencv_storage>
