<?xml version="1.0"?>
<opencv_storage>
<stage6>
  <maxWeakCount>8</maxWeakCount>
  <stageThreshold>-3.7624123692512512e-01</stageThreshold>
  <weakClassifiers>
    <_>
      <internalNodes>
        0 -1 29348 2.9656181577593088e-03</internalNodes>
      <leafValues>
        -6.0784316062927246e-01 5.7760816812515259e-01</leafValues></_>
    <_>
      <internalNodes>
        0 -1 8330 -8.4343001246452332e-02</internalNodes>
      <leafValues>
        6.0286414623260498e-01 -5.0879544019699097e-01</leafValues></_>
    <_>
      <internalNodes>
        0 -1 44255 -1.4140493236482143e-02</internalNodes>
      <leafValues>
        3.2546570897102356e-01 -7.3479264974594116e-01</leafValues></_>
    <_>
      <internalNodes>
        0 -1 143341 7.6270066201686859e-03</internalNodes>
      <leafValues>
        -4.2827516794204712e-01 5.4688364267349243e-01</leafValues></_>
    <_>
      <internalNodes>
        0 -1 99710 -2.0390793215483427e-03</internalNodes>
      <leafValues>
        3.8602694869041443e-01 -5.9573990106582642e-01</leafValues></_>
    <_>
      <internalNodes>
        0 -1 80748 -7.2583574801683426e-03</internalNodes>
      <leafValues>
        -4.5033326745033264e-01 6.5506190061569214e-01</leafValues></_>
    <_>
      <internalNodes>
        0 -1 144118 -1.3598795980215073e-02</internalNodes>
      <leafValues>
        4.5950177311897278e-01 -7.5912481546401978e-01</leafValues></_>
    <_>
      <internalNodes>
        0 -1 88517 2.8918214142322540e-02</internalNodes>
      <leafValues>
        -4.6668311953544617e-01 5.6628620624542236e-01</leafValues></_></weakClassifiers></stage6>
</opencv_storage>
